
namespace Eloquent {
    namespace ML {
        namespace Port {
            class RandomForestRegressor {
                public:
                    /**
                    * Predict class for features vector
                    */
                    float predict(float *x) {
                        float y_pred = 0;
                        // tree #1
                        if (x[2] <= 0.4821956753730774) {
                            if (x[0] <= 0.5135474801063538) {
                                if (x[2] <= 0.11297767609357834) {
                                    if (x[2] <= 0.05555856041610241) {
                                        if (x[0] <= 0.40935753285884857) {
                                            if (x[0] <= 0.3976256996393204) {
                                                if (x[2] <= 0.0071570188738405704) {
                                                    if (x[2] <= 0.003055651788599789) {
                                                        if (x[2] <= 0.001507455250248313) {
                                                            if (x[0] <= 0.38421787321567535) {
                                                                y_pred += 0.0004753237644627714;
                                                            }

                                                            else {
                                                                y_pred += 0.0012675298737479807;
                                                            }
                                                        }

                                                        else {
                                                            if (x[0] <= 0.38533519208431244) {
                                                                y_pred += 0.0017077704208164136;
                                                            }

                                                            else {
                                                                y_pred += 0.0025922116431142915;
                                                            }
                                                        }
                                                    }

                                                    else {
                                                        if (x[2] <= 0.004019880085252225) {
                                                            if (x[2] <= 0.0036260405322536826) {
                                                                y_pred += 0.0033272655106598714;
                                                            }

                                                            else {
                                                                y_pred += 0.0036830794110985212;
                                                            }
                                                        }

                                                        else {
                                                            if (x[2] <= 0.004739656113088131) {
                                                                y_pred += 0.004385653053965785;
                                                            }

                                                            else {
                                                                y_pred += 0.00497731792888726;
                                                            }
                                                        }
                                                    }
                                                }

                                                else {
                                                    if (x[2] <= 0.011149738915264606) {
                                                        if (x[2] <= 0.009533637668937445) {
                                                            if (x[2] <= 0.0086916359141469) {
                                                                y_pred += 0.008078733946033327;
                                                            }

                                                            else {
                                                                y_pred += 0.009087739006954096;
                                                            }
                                                        }

                                                        else {
                                                            if (x[0] <= 0.39120112359523773) {
                                                                y_pred += 0.009684260064302034;
                                                            }

                                                            else {
                                                                y_pred += 0.01081927520586786;
                                                            }
                                                        }
                                                    }

                                                    else {
                                                        if (x[0] <= 0.394553080201149) {
                                                            if (x[2] <= 0.011991740670055151) {
                                                                y_pred += 0.011486059520921063;
                                                            }

                                                            else {
                                                                y_pred += 0.012275699816411583;
                                                            }
                                                        }

                                                        else {
                                                            if (x[0] <= 0.3962290436029434) {
                                                                y_pred += 0.013503988100029491;
                                                            }

                                                            else {
                                                                y_pred += 0.014482907929870064;
                                                            }
                                                        }
                                                    }
                                                }
                                            }

                                            else {
                                                if (x[0] <= 0.4043296128511429) {
                                                    if (x[2] <= 0.018578367307782173) {
                                                        if (x[2] <= 0.016514104790985584) {
                                                            if (x[2] <= 0.015835070982575417) {
                                                                y_pred += 0.015412129723515666;
                                                            }

                                                            else {
                                                                y_pred += 0.01595277012376975;
                                                            }
                                                        }

                                                        else {
                                                            if (x[2] <= 0.01773636508733034) {
                                                                y_pred += 0.01696679392305237;
                                                            }

                                                            else {
                                                                y_pred += 0.01792649474810083;
                                                            }
                                                        }
                                                    }

                                                    else {
                                                        if (x[0] <= 0.40293295681476593) {
                                                            if (x[2] <= 0.01925740111619234) {
                                                                y_pred += 0.01899597231399045;
                                                            }

                                                            else {
                                                                y_pred += 0.019534107140105478;
                                                            }
                                                        }

                                                        else {
                                                            if (x[2] <= 0.020927824079990387) {
                                                                y_pred += 0.020506822901120204;
                                                            }

                                                            else {
                                                                y_pred += 0.021251044107989118;
                                                            }
                                                        }
                                                    }
                                                }

                                                else {
                                                    if (x[2] <= 0.025545255281031132) {
                                                        if (x[0] <= 0.4051675945520401) {
                                                            if (x[0] <= 0.40460893511772156) {
                                                                y_pred += 0.022087614194516596;
                                                            }

                                                            else {
                                                                y_pred += 0.02258466723755718;
                                                            }
                                                        }

                                                        else {
                                                            if (x[2] <= 0.0243229940533638) {
                                                                y_pred += 0.023769204515526002;
                                                            }

                                                            else {
                                                                y_pred += 0.024788731712528628;
                                                            }
                                                        }
                                                    }

                                                    else {
                                                        if (x[2] <= 0.026971226558089256) {
                                                            if (x[2] <= 0.02641441859304905) {
                                                                y_pred += 0.02605550099332513;
                                                            }

                                                            else {
                                                                y_pred += 0.026545698521547142;
                                                            }
                                                        }

                                                        else {
                                                            if (x[2] <= 0.027921874076128006) {
                                                                y_pred += 0.02729173050236105;
                                                            }

                                                            else {
                                                                y_pred += 0.028282379515996027;
                                                            }
                                                        }
                                                    }
                                                }
                                            }
                                        }

                                        else {
                                            if (x[0] <= 0.4205307215452194) {
                                                if (x[2] <= 0.037822190672159195) {
                                                    if (x[0] <= 0.4107541888952255) {
                                                        if (x[0] <= 0.4099162071943283) {
                                                            if (x[1] <= 0.25) {
                                                                y_pred += 0.029595014693409173;
                                                            }

                                                            else {
                                                                y_pred += 0.029239200595187437;
                                                            }
                                                        }

                                                        else {
                                                            if (x[2] <= 0.031833112239837646) {
                                                                y_pred += 0.03124008891226883;
                                                            }

                                                            else {
                                                                y_pred += 0.032240532788262874;
                                                            }
                                                        }
                                                    }

                                                    else {
                                                        if (x[2] <= 0.03498383052647114) {
                                                            if (x[2] <= 0.03397886082530022) {
                                                                y_pred += 0.03337527416280142;
                                                            }

                                                            else {
                                                                y_pred += 0.03444362099027634;
                                                            }
                                                        }

                                                        else {
                                                            if (x[2] <= 0.03659993037581444) {
                                                                y_pred += 0.03554463217350516;
                                                            }

                                                            else {
                                                                y_pred += 0.0370514880257827;
                                                            }
                                                        }
                                                    }
                                                }

                                                else {
                                                    if (x[2] <= 0.04121736064553261) {
                                                        if (x[2] <= 0.03984571434557438) {
                                                            if (x[2] <= 0.03884074278175831) {
                                                                y_pred += 0.03815084464912526;
                                                            }

                                                            else {
                                                                y_pred += 0.039283085731885554;
                                                            }
                                                        }

                                                        else {
                                                            if (x[2] <= 0.040348200127482414) {
                                                                y_pred += 0.0400746457094182;
                                                            }

                                                            else {
                                                                y_pred += 0.04057798378509795;
                                                            }
                                                        }
                                                    }

                                                    else {
                                                        if (x[2] <= 0.04235813952982426) {
                                                            if (x[0] <= 0.41717876493930817) {
                                                                y_pred += 0.04126586524225674;
                                                            }

                                                            else {
                                                                y_pred += 0.04181264804877746;
                                                            }
                                                        }

                                                        else {
                                                            if (x[0] <= 0.4199720770120621) {
                                                                y_pred += 0.04271972344849924;
                                                            }

                                                            else {
                                                                y_pred += 0.04319742384488721;
                                                            }
                                                        }
                                                    }
                                                }
                                            }

                                            else {
                                                if (x[2] <= 0.049963317811489105) {
                                                    if (x[2] <= 0.04697556979954243) {
                                                        if (x[2] <= 0.045250823721289635) {
                                                            if (x[2] <= 0.0447483379393816) {
                                                                y_pred += 0.04420850571082862;
                                                            }

                                                            else {
                                                                y_pred += 0.04491324616521445;
                                                            }
                                                        }

                                                        else {
                                                            if (x[2] <= 0.04605208337306976) {
                                                                y_pred += 0.04569264779184036;
                                                            }

                                                            else {
                                                                y_pred += 0.046289745068609806;
                                                            }
                                                        }
                                                    }

                                                    else {
                                                        if (x[2] <= 0.048347217962145805) {
                                                            if (x[0] <= 0.42304469645023346) {
                                                                y_pred += 0.04713853801726667;
                                                            }

                                                            else {
                                                                y_pred += 0.04788547498469208;
                                                            }
                                                        }

                                                        else {
                                                            if (x[2] <= 0.04916205815970898) {
                                                                y_pred += 0.048747230758396994;
                                                            }

                                                            else {
                                                                y_pred += 0.04933860756211544;
                                                            }
                                                        }
                                                    }
                                                }

                                                else {
                                                    if (x[2] <= 0.05255722813308239) {
                                                        if (x[2] <= 0.05156583897769451) {
                                                            if (x[0] <= 0.42499999701976776) {
                                                                y_pred += 0.05048210094114214;
                                                            }

                                                            else {
                                                                y_pred += 0.05115087393285659;
                                                            }
                                                        }

                                                        else {
                                                            if (x[0] <= 0.42611731588840485) {
                                                                y_pred += 0.05168806501798253;
                                                            }

                                                            else {
                                                                y_pred += 0.052394260545570795;
                                                            }
                                                        }
                                                    }

                                                    else {
                                                        if (x[2] <= 0.05392887629568577) {
                                                            if (x[2] <= 0.05318193882703781) {
                                                                y_pred += 0.05284694998633258;
                                                            }

                                                            else {
                                                                y_pred += 0.05339244056466738;
                                                            }
                                                        }

                                                        else {
                                                            if (x[2] <= 0.05479804053902626) {
                                                                y_pred += 0.05432024776372499;
                                                            }

                                                            else {
                                                                y_pred += 0.05505607386390017;
                                                            }
                                                        }
                                                    }
                                                }
                                            }
                                        }
                                    }

                                    else {
                                        if (x[2] <= 0.08675338327884674) {
                                            if (x[2] <= 0.07440854981541634) {
                                                if (x[0] <= 0.4331005662679672) {
                                                    if (x[2] <= 0.060963671654462814) {
                                                        if (x[2] <= 0.05851914919912815) {
                                                            if (x[0] <= 0.4287709444761276) {
                                                                y_pred += 0.05562646255925981;
                                                            }

                                                            else {
                                                                y_pred += 0.05776385410061481;
                                                            }
                                                        }

                                                        else {
                                                            if (x[2] <= 0.06008092686533928) {
                                                                y_pred += 0.0594002955530899;
                                                            }

                                                            else {
                                                                y_pred += 0.06056983184572719;
                                                            }
                                                        }
                                                    }

                                                    else {
                                                        if (x[2] <= 0.06279706582427025) {
                                                            if (x[2] <= 0.06185999698936939) {
                                                                y_pred += 0.06114022054108698;
                                                            }

                                                            else {
                                                                y_pred += 0.06208181474269025;
                                                            }
                                                        }

                                                        else {
                                                            if (x[2] <= 0.06434525921940804) {
                                                                y_pred += 0.0635793111885759;
                                                            }

                                                            else {
                                                                y_pred += 0.06471646672753795;
                                                            }
                                                        }
                                                    }
                                                }

                                                else {
                                                    if (x[2] <= 0.07003556564450264) {
                                                        if (x[0] <= 0.434497207403183) {
                                                            if (x[2] <= 0.06749597936868668) {
                                                                y_pred += 0.06713382908838529;
                                                            }

                                                            else {
                                                                y_pred += 0.06774670080802989;
                                                            }
                                                        }

                                                        else {
                                                            if (x[2] <= 0.06942443549633026) {
                                                                y_pred += 0.06911790228127504;
                                                            }

                                                            else {
                                                                y_pred += 0.06970510502400794;
                                                            }
                                                        }
                                                    }

                                                    else {
                                                        if (x[2] <= 0.0720047689974308) {
                                                            if (x[2] <= 0.07083682715892792) {
                                                                y_pred += 0.070201252585155;
                                                            }

                                                            else {
                                                                y_pred += 0.07131758441478667;
                                                            }
                                                        }

                                                        else {
                                                            if (x[2] <= 0.07265663892030716) {
                                                                y_pred += 0.07223835426426484;
                                                            }

                                                            else {
                                                                y_pred += 0.0729801059545328;
                                                            }
                                                        }
                                                    }
                                                }
                                            }

                                            else {
                                                if (x[2] <= 0.08092727139592171) {
                                                    if (x[2] <= 0.0784555934369564) {
                                                        if (x[2] <= 0.07660862058401108) {
                                                            if (x[2] <= 0.07569871470332146) {
                                                                y_pred += 0.07499251742839246;
                                                            }

                                                            else {
                                                                y_pred += 0.07611240165809087;
                                                            }
                                                        }

                                                        else {
                                                            if (x[0] <= 0.4389664828777313) {
                                                                y_pred += 0.07691192065722212;
                                                            }

                                                            else {
                                                                y_pred += 0.07740211842560922;
                                                            }
                                                        }
                                                    }

                                                    else {
                                                        if (x[2] <= 0.08009885251522064) {
                                                            if (x[0] <= 0.43980447947978973) {
                                                                y_pred += 0.07927382791328733;
                                                            }

                                                            else {
                                                                y_pred += 0.0798148933867827;
                                                            }
                                                        }

                                                        else {
                                                            if (x[2] <= 0.0805470161139965) {
                                                                y_pred += 0.08027169788271055;
                                                            }

                                                            else {
                                                                y_pred += 0.08062726480769528;
                                                            }
                                                        }
                                                    }
                                                }

                                                else {
                                                    if (x[2] <= 0.08371131494641304) {
                                                        if (x[2] <= 0.08251621574163437) {
                                                            if (x[2] <= 0.08164704963564873) {
                                                                y_pred += 0.0813075330134775;
                                                            }

                                                            else {
                                                                y_pred += 0.08200014642273772;
                                                            }
                                                        }

                                                        else {
                                                            if (x[2] <= 0.08310018107295036) {
                                                                y_pred += 0.08268144397876855;
                                                            }

                                                            else {
                                                                y_pred += 0.08336985375492664;
                                                            }
                                                        }
                                                    }

                                                    else {
                                                        if (x[2] <= 0.08516444265842438) {
                                                            if (x[2] <= 0.08449899032711983) {
                                                                y_pred += 0.08404888750637575;
                                                            }

                                                            else {
                                                                y_pred += 0.08481134479784337;
                                                            }
                                                        }

                                                        else {
                                                            if (x[2] <= 0.08596570417284966) {
                                                                y_pred += 0.08540436793227728;
                                                            }

                                                            else {
                                                                y_pred += 0.08626447770490518;
                                                            }
                                                        }
                                                    }
                                                }
                                            }
                                        }

                                        else {
                                            if (x[2] <= 0.09942415729165077) {
                                                if (x[2] <= 0.09256591275334358) {
                                                    if (x[2] <= 0.08984977751970291) {
                                                        if (x[0] <= 0.4486033469438553) {
                                                            if (x[0] <= 0.4481843560934067) {
                                                                y_pred += 0.0870340497542;
                                                            }

                                                            else {
                                                                y_pred += 0.0875772768853308;
                                                            }
                                                        }

                                                        else {
                                                            if (x[2] <= 0.08896703273057938) {
                                                                y_pred += 0.08851260251890765;
                                                            }

                                                            else {
                                                                y_pred += 0.08935860904359556;
                                                            }
                                                        }
                                                    }

                                                    else {
                                                        if (x[0] <= 0.4498603343963623) {
                                                            if (x[2] <= 0.09014854952692986) {
                                                                y_pred += 0.08987693845326768;
                                                            }

                                                            else {
                                                                y_pred += 0.09017571348417049;
                                                            }
                                                        }

                                                        else {
                                                            if (x[2] <= 0.09137081354856491) {
                                                                y_pred += 0.09092717795583467;
                                                            }

                                                            else {
                                                                y_pred += 0.09174428219862653;
                                                            }
                                                        }
                                                    }
                                                }

                                                else {
                                                    if (x[2] <= 0.09502401947975159) {
                                                        if (x[2] <= 0.09397830441594124) {
                                                            if (x[0] <= 0.4509776532649994) {
                                                                y_pred += 0.09289486821217688;
                                                            }

                                                            else {
                                                                y_pred += 0.09349134016806675;
                                                            }
                                                        }

                                                        else {
                                                            if (x[2] <= 0.09449436888098717) {
                                                                y_pred += 0.09420163137956143;
                                                            }

                                                            else {
                                                                y_pred += 0.094673635530239;
                                                            }
                                                        }
                                                    }

                                                    else {
                                                        if (x[2] <= 0.096898153424263) {
                                                            if (x[2] <= 0.09585244208574295) {
                                                                y_pred += 0.09544501840981752;
                                                            }

                                                            else {
                                                                y_pred += 0.09607713764828206;
                                                            }
                                                        }

                                                        else {
                                                            if (x[2] <= 0.09797102212905884) {
                                                                y_pred += 0.09740063664227405;
                                                            }

                                                            else {
                                                                y_pred += 0.09827885407823833;
                                                            }
                                                        }
                                                    }
                                                }
                                            }

                                            else {
                                                if (x[2] <= 0.10649969056248665) {
                                                    if (x[2] <= 0.10288723185658455) {
                                                        if (x[2] <= 0.10106742009520531) {
                                                            if (x[2] <= 0.10040196776390076) {
                                                                y_pred += 0.0998397269337529;
                                                            }

                                                            else {
                                                                y_pred += 0.1005920963293978;
                                                            }
                                                        }

                                                        else {
                                                            if (x[2] <= 0.10147484019398689) {
                                                                y_pred += 0.10118210089692536;
                                                            }

                                                            else {
                                                                y_pred += 0.10170910641812761;
                                                            }
                                                        }
                                                    }

                                                    else {
                                                        if (x[2] <= 0.10470704361796379) {
                                                            if (x[2] <= 0.10420455783605576) {
                                                                y_pred += 0.10369162483004492;
                                                            }

                                                            else {
                                                                y_pred += 0.10438357405102106;
                                                            }
                                                        }

                                                        else {
                                                            if (x[0] <= 0.4579608887434006) {
                                                                y_pred += 0.10506285456639888;
                                                            }

                                                            else {
                                                                y_pred += 0.10617375456280854;
                                                            }
                                                        }
                                                    }
                                                }

                                                else {
                                                    if (x[0] <= 0.46019552648067474) {
                                                        if (x[2] <= 0.10836024582386017) {
                                                            if (x[0] <= 0.458798885345459) {
                                                                y_pred += 0.10690167882754378;
                                                            }

                                                            else {
                                                                y_pred += 0.10749922881023617;
                                                            }
                                                        }

                                                        else {
                                                            if (x[0] <= 0.45991620421409607) {
                                                                y_pred += 0.10901017684908774;
                                                            }

                                                            else {
                                                                y_pred += 0.10977806729680414;
                                                            }
                                                        }
                                                    }

                                                    else {
                                                        if (x[2] <= 0.11126651242375374) {
                                                            if (x[2] <= 0.11068254336714745) {
                                                                y_pred += 0.11054673416500034;
                                                            }

                                                            else {
                                                                y_pred += 0.11065537963078313;
                                                            }
                                                        }

                                                        else {
                                                            if (x[2] <= 0.11255667358636856) {
                                                                y_pred += 0.11205569916532229;
                                                            }

                                                            else {
                                                                y_pred += 0.11266532100488273;
                                                            }
                                                        }
                                                    }
                                                }
                                            }
                                        }
                                    }
                                }

                                else {
                                    if (x[2] <= 0.1723116785287857) {
                                        if (x[2] <= 0.14206749945878983) {
                                            if (x[2] <= 0.12695219367742538) {
                                                if (x[2] <= 0.12003963068127632) {
                                                    if (x[2] <= 0.11637284606695175) {
                                                        if (x[2] <= 0.1141863577067852) {
                                                            if (x[2] <= 0.11326286941766739) {
                                                                y_pred += 0.11299125734289626;
                                                            }

                                                            else {
                                                                y_pred += 0.11351818785194308;
                                                            }
                                                        }

                                                        else {
                                                            if (x[2] <= 0.11524565145373344) {
                                                                y_pred += 0.11475921507133409;
                                                            }

                                                            else {
                                                                y_pred += 0.11594020499349052;
                                                            }
                                                        }
                                                    }

                                                    else {
                                                        if (x[2] <= 0.11826056241989136) {
                                                            if (x[2] <= 0.1172284297645092) {
                                                                y_pred += 0.1167214176095683;
                                                            }

                                                            else {
                                                                y_pred += 0.11759446116372556;
                                                            }
                                                        }

                                                        else {
                                                            if (x[2] <= 0.11904823780059814) {
                                                                y_pred += 0.11850048663378542;
                                                            }

                                                            else {
                                                                y_pred += 0.11931080074923063;
                                                            }
                                                        }
                                                    }
                                                }

                                                else {
                                                    if (x[2] <= 0.1231224462389946) {
                                                        if (x[2] <= 0.12173721566796303) {
                                                            if (x[2] <= 0.12067792192101479) {
                                                                y_pred += 0.12036556714620528;
                                                            }

                                                            else {
                                                                y_pred += 0.12087969284154217;
                                                            }
                                                        }

                                                        else {
                                                            if (x[2] <= 0.12252489477396011) {
                                                                y_pred += 0.12218266269987135;
                                                            }

                                                            else {
                                                                y_pred += 0.12274671358813027;
                                                            }
                                                        }
                                                    }

                                                    else {
                                                        if (x[2] <= 0.12465706095099449) {
                                                            if (x[0] <= 0.4666201025247574) {
                                                                y_pred += 0.12339405910933536;
                                                            }

                                                            else {
                                                                y_pred += 0.12413873290974975;
                                                            }
                                                        }

                                                        else {
                                                            if (x[2] <= 0.1253768429160118) {
                                                                y_pred += 0.12482197070517263;
                                                            }

                                                            else {
                                                                y_pred += 0.125929119466661;
                                                            }
                                                        }
                                                    }
                                                }
                                            }

                                            else {
                                                if (x[2] <= 0.13461170345544815) {
                                                    if (x[0] <= 0.47081005573272705) {
                                                        if (x[2] <= 0.12973624467849731) {
                                                            if (x[2] <= 0.12820162624120712) {
                                                                y_pred += 0.12736505064635714;
                                                            }

                                                            else {
                                                                y_pred += 0.12904856148610522;
                                                            }
                                                        }

                                                        else {
                                                            if (x[2] <= 0.13063255697488785) {
                                                                y_pred += 0.13022004929107636;
                                                            }

                                                            else {
                                                                y_pred += 0.13096019577885384;
                                                            }
                                                        }
                                                    }

                                                    else {
                                                        if (x[2] <= 0.13322646915912628) {
                                                            if (x[2] <= 0.1326153352856636) {
                                                                y_pred += 0.132183475708899;
                                                            }

                                                            else {
                                                                y_pred += 0.13285639834008534;
                                                            }
                                                        }

                                                        else {
                                                            if (x[2] <= 0.13402773439884186) {
                                                                y_pred += 0.13357956954864247;
                                                            }

                                                            else {
                                                                y_pred += 0.13420428115819483;
                                                            }
                                                        }
                                                    }
                                                }

                                                else {
                                                    if (x[2] <= 0.138319231569767) {
                                                        if (x[2] <= 0.13675744831562042) {
                                                            if (x[0] <= 0.47276537120342255) {
                                                                y_pred += 0.13479956769862764;
                                                            }

                                                            else {
                                                                y_pred += 0.1359245010495711;
                                                            }
                                                        }

                                                        else {
                                                            if (x[0] <= 0.4730446934700012) {
                                                                y_pred += 0.1366759659168019;
                                                            }

                                                            else {
                                                                y_pred += 0.1377227230787962;
                                                            }
                                                        }
                                                    }

                                                    else {
                                                        if (x[2] <= 0.14043781161308289) {
                                                            if (x[0] <= 0.474441334605217) {
                                                                y_pred += 0.13872121649371066;
                                                            }

                                                            else {
                                                                y_pred += 0.13963655401880523;
                                                            }
                                                        }

                                                        else {
                                                            if (x[2] <= 0.14138846099376678) {
                                                                y_pred += 0.1407909120433015;
                                                            }

                                                            else {
                                                                y_pred += 0.14163019815769295;
                                                            }
                                                        }
                                                    }
                                                }
                                            }
                                        }

                                        else {
                                            if (x[0] <= 0.4819832295179367) {
                                                if (x[2] <= 0.14945539087057114) {
                                                    if (x[2] <= 0.14561205357313156) {
                                                        if (x[2] <= 0.14387372881174088) {
                                                            if (x[2] <= 0.14322185516357422) {
                                                                y_pred += 0.14258808882645055;
                                                            }

                                                            else {
                                                                y_pred += 0.14345272565830525;
                                                            }
                                                        }

                                                        else {
                                                            if (x[2] <= 0.1445934996008873) {
                                                                y_pred += 0.1440910176818755;
                                                            }

                                                            else {
                                                                y_pred += 0.1449843247350987;
                                                            }
                                                        }
                                                    }

                                                    else {
                                                        if (x[2] <= 0.14751335233449936) {
                                                            if (x[2] <= 0.14633182436227798) {
                                                                y_pred += 0.14583322521972678;
                                                            }

                                                            else {
                                                                y_pred += 0.14670820914697089;
                                                            }
                                                        }

                                                        else {
                                                            if (x[2] <= 0.1483689323067665) {
                                                                y_pred += 0.14780533418621555;
                                                            }

                                                            else {
                                                                y_pred += 0.1486640035369011;
                                                            }
                                                        }
                                                    }
                                                }

                                                else {
                                                    if (x[2] <= 0.15267401188611984) {
                                                        if (x[0] <= 0.47946928441524506) {
                                                            if (x[0] <= 0.4791899472475052) {
                                                                y_pred += 0.1498467576477854;
                                                            }

                                                            else {
                                                                y_pred += 0.15048751887549933;
                                                            }
                                                        }

                                                        else {
                                                            if (x[2] <= 0.15213078260421753) {
                                                                y_pred += 0.1513702630080882;
                                                            }

                                                            else {
                                                                y_pred += 0.15215794291191018;
                                                            }
                                                        }
                                                    }

                                                    else {
                                                        if (x[2] <= 0.15471111238002777) {
                                                            if (x[2] <= 0.1538826897740364) {
                                                                y_pred += 0.15303899003884752;
                                                            }

                                                            else {
                                                                y_pred += 0.15433085201000465;
                                                            }
                                                        }

                                                        else {
                                                            if (x[0] <= 0.48142458498477936) {
                                                                y_pred += 0.15517964443453636;
                                                            }

                                                            else {
                                                                y_pred += 0.15592318658757795;
                                                            }
                                                        }
                                                    }
                                                }
                                            }

                                            else {
                                                if (x[2] <= 0.16458427160978317) {
                                                    if (x[2] <= 0.1605372205376625) {
                                                        if (x[2] <= 0.15841864049434662) {
                                                            if (x[2] <= 0.1575223132967949) {
                                                                y_pred += 0.1569881383218494;
                                                            }

                                                            else {
                                                                y_pred += 0.1579195466813974;
                                                            }
                                                        }

                                                        else {
                                                            if (x[0] <= 0.4831005483865738) {
                                                                y_pred += 0.15879346354789634;
                                                            }

                                                            else {
                                                                y_pred += 0.1598102038011002;
                                                            }
                                                        }
                                                    }

                                                    else {
                                                        if (x[2] <= 0.16239777952432632) {
                                                            if (x[2] <= 0.16162367910146713) {
                                                                y_pred += 0.16096124187777816;
                                                            }

                                                            else {
                                                                y_pred += 0.16190343931368814;
                                                            }
                                                        }

                                                        else {
                                                            if (x[2] <= 0.16334842145442963) {
                                                                y_pred += 0.16299852144954388;
                                                            }

                                                            else {
                                                                y_pred += 0.16376127597425597;
                                                            }
                                                        }
                                                    }
                                                }

                                                else {
                                                    if (x[2] <= 0.16838685423135757) {
                                                        if (x[0] <= 0.48645250499248505) {
                                                            if (x[2] <= 0.16562997549772263) {
                                                                y_pred += 0.1649871587403015;
                                                            }

                                                            else {
                                                                y_pred += 0.16606038097727926;
                                                            }
                                                        }

                                                        else {
                                                            if (x[2] <= 0.16799301654100418) {
                                                                y_pred += 0.16784362975979655;
                                                            }

                                                            else {
                                                                y_pred += 0.1680971356653219;
                                                            }
                                                        }
                                                    }

                                                    else {
                                                        if (x[2] <= 0.17068199068307877) {
                                                            if (x[2] <= 0.1700436994433403) {
                                                                y_pred += 0.16934120861114527;
                                                            }

                                                            else {
                                                                y_pred += 0.17031531379731898;
                                                            }
                                                        }

                                                        else {
                                                            if (x[2] <= 0.1713610216975212) {
                                                                y_pred += 0.17079063754447527;
                                                            }

                                                            else {
                                                                y_pred += 0.1716779086967345;
                                                            }
                                                        }
                                                    }
                                                }
                                            }
                                        }
                                    }

                                    else {
                                        if (x[2] <= 0.2029361054301262) {
                                            if (x[2] <= 0.18784797191619873) {
                                                if (x[2] <= 0.1812341809272766) {
                                                    if (x[0] <= 0.4909217804670334) {
                                                        if (x[2] <= 0.17553029209375381) {
                                                            if (x[2] <= 0.1736290007829666) {
                                                                y_pred += 0.1727756799230633;
                                                            }

                                                            else {
                                                                y_pred += 0.17433713477795593;
                                                            }
                                                        }

                                                        else {
                                                            if (x[2] <= 0.17644020169973373) {
                                                                y_pred += 0.17589335141758833;
                                                            }

                                                            else {
                                                                y_pred += 0.17665386916383177;
                                                            }
                                                        }
                                                    }

                                                    else {
                                                        if (x[2] <= 0.180106982588768) {
                                                            if (x[2] <= 0.17930572479963303) {
                                                                y_pred += 0.1789526270538214;
                                                            }

                                                            else {
                                                                y_pred += 0.17968428636245254;
                                                            }
                                                        }

                                                        else {
                                                            if (x[2] <= 0.18079959601163864) {
                                                                y_pred += 0.1804080234657742;
                                                            }

                                                            else {
                                                                y_pred += 0.18096528410966503;
                                                            }
                                                        }
                                                    }
                                                }

                                                else {
                                                    if (x[2] <= 0.18476516008377075) {
                                                        if (x[2] <= 0.1829453483223915) {
                                                            if (x[2] <= 0.18225273489952087) {
                                                                y_pred += 0.1815077352865189;
                                                            }

                                                            else {
                                                                y_pred += 0.18237948585667682;
                                                            }
                                                        }

                                                        else {
                                                            if (x[2] <= 0.18388241529464722) {
                                                                y_pred += 0.18321152921361614;
                                                            }

                                                            else {
                                                                y_pred += 0.18424909331295014;
                                                            }
                                                        }
                                                    }

                                                    else {
                                                        if (x[2] <= 0.18666645139455795) {
                                                            if (x[2] <= 0.18568864464759827) {
                                                                y_pred += 0.18531808709234873;
                                                            }

                                                            else {
                                                                y_pred += 0.18604554507306414;
                                                            }
                                                        }

                                                        else {
                                                            if (x[2] <= 0.1873590648174286) {
                                                                y_pred += 0.18712449243657803;
                                                            }

                                                            else {
                                                                y_pred += 0.18750996462502056;
                                                            }
                                                        }
                                                    }
                                                }
                                            }

                                            else {
                                                if (x[0] <= 0.4984636902809143) {
                                                    if (x[0] <= 0.4967877119779587) {
                                                        if (x[0] <= 0.4965083748102188) {
                                                            if (x[0] <= 0.49594973027706146) {
                                                                y_pred += 0.18797019853818087;
                                                            }

                                                            else {
                                                                y_pred += 0.1892494986472478;
                                                            }
                                                        }

                                                        else {
                                                            if (x[2] <= 0.1907813996076584) {
                                                                y_pred += 0.1904011406372875;
                                                            }

                                                            else {
                                                                y_pred += 0.1908900451838644;
                                                            }
                                                        }
                                                    }

                                                    else {
                                                        if (x[2] <= 0.1928320825099945) {
                                                            if (x[2] <= 0.19211231172084808) {
                                                                y_pred += 0.19169039994042292;
                                                            }

                                                            else {
                                                                y_pred += 0.1922997194002664;
                                                            }
                                                        }

                                                        else {
                                                            if (x[2] <= 0.19383705407381058) {
                                                                y_pred += 0.19332551357853586;
                                                            }

                                                            else {
                                                                y_pred += 0.19429879560147487;
                                                            }
                                                        }
                                                    }
                                                }

                                                else {
                                                    if (x[2] <= 0.1989298090338707) {
                                                        if (x[0] <= 0.4993016868829727) {
                                                            if (x[2] <= 0.19557538628578186) {
                                                                y_pred += 0.19510005570724726;
                                                            }

                                                            else {
                                                                y_pred += 0.19602513986358974;
                                                            }
                                                        }

                                                        else {
                                                            if (x[2] <= 0.1978026106953621) {
                                                                y_pred += 0.19704662034207884;
                                                            }

                                                            else {
                                                                y_pred += 0.19810353093254146;
                                                            }
                                                        }
                                                    }

                                                    else {
                                                        if (x[0] <= 0.500977635383606) {
                                                            if (x[2] <= 0.19992119818925858) {
                                                                y_pred += 0.19925121762191378;
                                                            }

                                                            else {
                                                                y_pred += 0.2003693605405951;
                                                            }
                                                        }

                                                        else {
                                                            if (x[0] <= 0.5012569725513458) {
                                                                y_pred += 0.20113666906851746;
                                                            }

                                                            else {
                                                                y_pred += 0.20216589092121762;
                                                            }
                                                        }
                                                    }
                                                }
                                            }
                                        }

                                        else {
                                            if (x[2] <= 0.21919218450784683) {
                                                if (x[2] <= 0.21082648634910583) {
                                                    if (x[0] <= 0.5029329657554626) {
                                                        if (x[2] <= 0.20495963096618652) {
                                                            if (x[2] <= 0.20415837317705154) {
                                                                y_pred += 0.2033088239979165;
                                                            }

                                                            else {
                                                                y_pred += 0.20439700350402817;
                                                            }
                                                        }

                                                        else {
                                                            if (x[2] <= 0.20562508702278137) {
                                                                y_pred += 0.20517692259926668;
                                                            }

                                                            else {
                                                                y_pred += 0.2059442309706109;
                                                            }
                                                        }
                                                    }

                                                    else {
                                                        if (x[0] <= 0.5037709474563599) {
                                                            if (x[0] <= 0.5032122731208801) {
                                                                y_pred += 0.20699333836225073;
                                                            }

                                                            else {
                                                                y_pred += 0.20844863208202896;
                                                            }
                                                        }

                                                        else {
                                                            if (x[1] <= 3.250001907348633) {
                                                                y_pred += 0.21034663528756015;
                                                            }

                                                            else {
                                                                y_pred += 0.2096857086381205;
                                                            }
                                                        }
                                                    }
                                                }

                                                else {
                                                    if (x[2] <= 0.21553898602724075) {
                                                        if (x[2] <= 0.21301297843456268) {
                                                            if (x[2] <= 0.21180429309606552) {
                                                                y_pred += 0.21123778652294894;
                                                            }

                                                            else {
                                                                y_pred += 0.2121475159263704;
                                                            }
                                                        }

                                                        else {
                                                            if (x[2] <= 0.21408584713935852) {
                                                                y_pred += 0.2134950891016124;
                                                            }

                                                            else {
                                                                y_pred += 0.2146508059991609;
                                                            }
                                                        }
                                                    }

                                                    else {
                                                        if (x[2] <= 0.21725014597177505) {
                                                            if (x[2] <= 0.21627233922481537) {
                                                                y_pred += 0.21571165098859962;
                                                            }

                                                            else {
                                                                y_pred += 0.2166444501281597;
                                                            }
                                                        }

                                                        else {
                                                            if (x[2] <= 0.21822795271873474) {
                                                                y_pred += 0.2175602408008931;
                                                            }

                                                            else {
                                                                y_pred += 0.21857562328244926;
                                                            }
                                                        }
                                                    }
                                                }
                                            }

                                            else {
                                                if (x[2] <= 0.2266751453280449) {
                                                    if (x[2] <= 0.2232256457209587) {
                                                        if (x[2] <= 0.22147374600172043) {
                                                            if (x[0] <= 0.5079608857631683) {
                                                                y_pred += 0.21946923192205975;
                                                            }

                                                            else {
                                                                y_pred += 0.22076963449493148;
                                                            }
                                                        }

                                                        else {
                                                            if (x[0] <= 0.5085195600986481) {
                                                                y_pred += 0.2217127607904747;
                                                            }

                                                            else {
                                                                y_pred += 0.22268091272645377;
                                                            }
                                                        }
                                                    }

                                                    else {
                                                        if (x[2] <= 0.22519484907388687) {
                                                            if (x[2] <= 0.22423061728477478) {
                                                                y_pred += 0.22374020614969137;
                                                            }

                                                            else {
                                                                y_pred += 0.2244935911879412;
                                                            }
                                                        }

                                                        else {
                                                            if (x[2] <= 0.22586030513048172) {
                                                                y_pred += 0.2255207846826149;
                                                            }

                                                            else {
                                                                y_pred += 0.22602450456942605;
                                                            }
                                                        }
                                                    }
                                                }

                                                else {
                                                    if (x[2] <= 0.2304777279496193) {
                                                        if (x[2] <= 0.22852211445569992) {
                                                            if (x[2] <= 0.22753072530031204) {
                                                                y_pred += 0.22692774346450206;
                                                            }

                                                            else {
                                                                y_pred += 0.22787024272194167;
                                                            }
                                                        }

                                                        else {
                                                            if (x[2] <= 0.22941844165325165) {
                                                                y_pred += 0.22893707985281728;
                                                            }

                                                            else {
                                                                y_pred += 0.2298267650938402;
                                                            }
                                                        }
                                                    }

                                                    else {
                                                        if (x[0] <= 0.5129888355731964) {
                                                            if (x[2] <= 0.23131974041461945) {
                                                                y_pred += 0.23088515257781114;
                                                            }

                                                            else {
                                                                y_pred += 0.2316351079418297;
                                                            }
                                                        }

                                                        else {
                                                            if (x[1] <= 1.7500009536743164) {
                                                                y_pred += 0.23272348300941514;
                                                            }

                                                            else {
                                                                y_pred += 0.23371672478254657;
                                                            }
                                                        }
                                                    }
                                                }
                                            }
                                        }
                                    }
                                }
                            }

                            else {
                                if (x[2] <= 0.3562484383583069) {
                                    if (x[2] <= 0.29631687700748444) {
                                        if (x[2] <= 0.26437512040138245) {
                                            if (x[2] <= 0.2503870129585266) {
                                                if (x[2] <= 0.24274109303951263) {
                                                    if (x[2] <= 0.2384360134601593) {
                                                        if (x[2] <= 0.2363445833325386) {
                                                            if (x[2] <= 0.23547542095184326) {
                                                                y_pred += 0.2349892353246529;
                                                            }

                                                            else {
                                                                y_pred += 0.23564110804023639;
                                                            }
                                                        }

                                                        else {
                                                            if (x[2] <= 0.23743104189634323) {
                                                                y_pred += 0.23688050176501627;
                                                            }

                                                            else {
                                                                y_pred += 0.2377622012631363;
                                                            }
                                                        }
                                                    }

                                                    else {
                                                        if (x[2] <= 0.23982124030590057) {
                                                            if (x[0] <= 0.5155028104782104) {
                                                                y_pred += 0.2387279965044532;
                                                            }

                                                            else {
                                                                y_pred += 0.23944098221707433;
                                                            }
                                                        }

                                                        else {
                                                            if (x[2] <= 0.24183118343353271) {
                                                                y_pred += 0.2406039824480248;
                                                            }

                                                            else {
                                                                y_pred += 0.24238799053840804;
                                                            }
                                                        }
                                                    }
                                                }

                                                else {
                                                    if (x[2] <= 0.24727703630924225) {
                                                        if (x[2] <= 0.24543005973100662) {
                                                            if (x[2] <= 0.24401766806840897) {
                                                                y_pred += 0.24332234168258832;
                                                            }

                                                            else {
                                                                y_pred += 0.24459315377893515;
                                                            }
                                                        }

                                                        else {
                                                            if (x[0] <= 0.518296092748642) {
                                                                y_pred += 0.24581847047770494;
                                                            }

                                                            else {
                                                                y_pred += 0.24666047253095788;
                                                            }
                                                        }
                                                    }

                                                    else {
                                                        if (x[2] <= 0.24858078360557556) {
                                                            if (x[2] <= 0.24768445640802383) {
                                                                y_pred += 0.24730419687616398;
                                                            }

                                                            else {
                                                                y_pred += 0.2479017469379697;
                                                            }
                                                        }

                                                        else {
                                                            if (x[2] <= 0.24934130162000656) {
                                                                y_pred += 0.24892369378313942;
                                                            }

                                                            else {
                                                                y_pred += 0.2495667392153269;
                                                            }
                                                        }
                                                    }
                                                }
                                            }

